digraph Tree {
node [shape=box] ;
0 [label="X[180] <= 0.0205\ngini = 0.5\nsamples = 15820\nvalue = [7884, 7936]"] ;
1 [label="X[193] <= 0.0131\ngini = 0.4749\nsamples = 12672\nvalue = [4917, 7755]"] ;
0 -> 1 [labeldistance=2.5, labelangle=45, headlabel="True"] ;
2 [label="X[324] <= 0.0079\ngini = 0.4434\nsamples = 11597\nvalue = [3847, 7750]"] ;
1 -> 2 ;
3 [label="X[285] <= 0.0246\ngini = 0.4153\nsamples = 10975\nvalue = [3229, 7746]"] ;
2 -> 3 ;
4 [label="X[22] <= 0.0483\ngini = 0.3762\nsamples = 10108\nvalue = [2539, 7569]"] ;
3 -> 4 ;
5 [label="X[340] <= 0.0104\ngini = 0.3442\nsamples = 9588\nvalue = [2118, 7470]"] ;
4 -> 5 ;
6 [label="X[84] <= 0.085\ngini = 0.3242\nsamples = 9361\nvalue = [1905, 7456]"] ;
5 -> 6 ;
7 [label="X[341] <= 0.0089\ngini = 0.3048\nsamples = 9117\nvalue = [1710, 7407]"] ;
6 -> 7 ;
8 [label="X[325] <= 0.0097\ngini = 0.2918\nsamples = 9004\nvalue = [1597, 7407]"] ;
7 -> 8 ;
9 [label="X[220] <= 0.0065\ngini = 0.2785\nsamples = 8894\nvalue = [1487, 7407]"] ;
8 -> 9 ;
10 [label="X[36] <= 0.0784\ngini = 0.261\nsamples = 8683\nvalue = [1340, 7343]"] ;
9 -> 10 ;
11 [label="X[354] <= 0.0382\ngini = 0.2416\nsamples = 8438\nvalue = [1186, 7252]"] ;
10 -> 11 ;
12 [label="X[358] <= 0.0253\ngini = 0.234\nsamples = 8387\nvalue = [1135, 7252]"] ;
11 -> 12 ;
13 [label="X[351] <= 0.0922\ngini = 0.2126\nsamples = 8006\nvalue = [968, 7038]"] ;
12 -> 13 ;
14 [label="X[121] <= 0.0867\ngini = 0.1887\nsamples = 7592\nvalue = [801, 6791]"] ;
13 -> 14 ;
15 [label="X[298] <= 0.0514\ngini = 0.1812\nsamples = 7542\nvalue = [760, 6782]"] ;
14 -> 15 ;
16 [label="X[93] <= 0.09\ngini = 0.1759\nsamples = 7514\nvalue = [732, 6782]"] ;
15 -> 16 ;
17 [label="X[313] <= 0.0476\ngini = 0.17\nsamples = 7482\nvalue = [702, 6780]"] ;
16 -> 17 ;
18 [label="X[250] <= 0.0932\ngini = 0.1651\nsamples = 7456\nvalue = [677, 6779]"] ;
17 -> 18 ;
19 [label="X[104] <= 0.0275\ngini = 0.1559\nsamples = 7369\nvalue = [628, 6741]"] ;
18 -> 19 ;
20 [label="X[360] <= 0.0896\ngini = 0.1493\nsamples = 7325\nvalue = [595, 6730]"] ;
19 -> 20 ;
21 [label="X[54] <= 0.0577\ngini = 0.1443\nsamples = 7295\nvalue = [571, 6724]"] ;
20 -> 21 ;
22 [label="X[170] <= 0.0516\ngini = 0.1402\nsamples = 7275\nvalue = [552, 6723]"] ;
21 -> 22 ;
23 [label="X[312] <= 0.0671\ngini = 0.1366\nsamples = 7258\nvalue = [535, 6723]"] ;
22 -> 23 ;
24 [label="X[116] <= 0.155\ngini = 0.1331\nsamples = 7242\nvalue = [519, 6723]"] ;
23 -> 24 ;
25 [label="X[72] <= 0.0401\ngini = 0.1298\nsamples = 7227\nvalue = [504, 6723]"] ;
24 -> 25 ;
26 [label="X[342] <= 0.0411\ngini = 0.1264\nsamples = 7212\nvalue = [489, 6723]"] ;
25 -> 26 ;
27 [label="X[14] <= 0.0075\ngini = 0.1233\nsamples = 7198\nvalue = [475, 6723]"] ;
26 -> 27 ;
28 [label="X[219] <= 0.0558\ngini = 0.1203\nsamples = 7185\nvalue = [462, 6723]"] ;
27 -> 28 ;
29 [label="X[367] <= 0.154\ngini = 0.1147\nsamples = 7125\nvalue = [435, 6690]"] ;
28 -> 29 ;
30 [label="X[239] <= 0.0506\ngini = 0.1123\nsamples = 7115\nvalue = [425, 6690]"] ;
29 -> 30 ;
31 [label="X[182] <= 0.0947\ngini = 0.11\nsamples = 7105\nvalue = [415, 6690]"] ;
30 -> 31 ;
32 [label="X[343] <= 0.0151\ngini = 0.1077\nsamples = 7093\nvalue = [405, 6688]"] ;
31 -> 32 ;
33 [label="X[212] <= 0.1651\ngini = 0.1023\nsamples = 7029\nvalue = [380, 6649]"] ;
32 -> 33 ;
34 [label="X[55] <= 0.0203\ngini = 0.0995\nsamples = 7012\nvalue = [368, 6644]"] ;
33 -> 34 ;
35 [label="X[143] <= 0.0212\ngini = 0.0975\nsamples = 7004\nvalue = [360, 6644]"] ;
34 -> 35 ;
36 [label="X[278] <= 0.0444\ngini = 0.0956\nsamples = 6995\nvalue = [352, 6643]"] ;
35 -> 36 ;
37 [label="X[117] <= 0.0741\ngini = 0.0932\nsamples = 6981\nvalue = [342, 6639]"] ;
36 -> 37 ;
38 [label="X[231] <= 0.1591\ngini = 0.0897\nsamples = 6949\nvalue = [327, 6622]"] ;
37 -> 38 ;
39 [label="X[142] <= 0.2745\ngini = 0.0868\nsamples = 6927\nvalue = [315, 6612]"] ;
38 -> 39 ;
40 [label="X[236] <= 0.2129\ngini = 0.0853\nsamples = 6921\nvalue = [309, 6612]"] ;
39 -> 40 ;
41 [label="X[168] <= 0.1789\ngini = 0.082\nsamples = 6891\nvalue = [295, 6596]"] ;
40 -> 41 ;
42 [label="X[156] <= 0.1229\ngini = 0.0804\nsamples = 6884\nvalue = [289, 6595]"] ;
41 -> 42 ;
43 [label="X[373] <= 0.0613\ngini = 0.0787\nsamples = 6874\nvalue = [282, 6592]"] ;
42 -> 43 ;
44 [label="X[216] <= 0.1094\ngini = 0.0751\nsamples = 6831\nvalue = [267, 6564]"] ;
43 -> 44 ;
45 [label="X[333] <= 0.1203\ngini = 0.0738\nsamples = 6825\nvalue = [262, 6563]"] ;
44 -> 45 ;
46 [label="X[83] <= 0.132\ngini = 0.0725\nsamples = 6819\nvalue = [257, 6562]"] ;
45 -> 46 ;
47 [label="X[322] <= 0.2134\ngini = 0.0712\nsamples = 6813\nvalue = [252, 6561]"] ;
46 -> 47 ;
48 [label="X[253] <= 0.161\ngini = 0.0702\nsamples = 6809\nvalue = [248, 6561]"] ;
47 -> 48 ;
49 [label="X[217] <= 0.1017\ngini = 0.0691\nsamples = 6805\nvalue = [244, 6561]"] ;
48 -> 49 ;
50 [label="X[20] <= 0.2352\ngini = 0.0681\nsamples = 6801\nvalue = [240, 6561]"] ;
49 -> 50 ;
51 [label="X[293] <= 0.1698\ngini = 0.067\nsamples = 6797\nvalue = [236, 6561]"] ;
50 -> 51 ;
52 [label="X[80] <= 0.2984\ngini = 0.066\nsamples = 6793\nvalue = [232, 6561]"] ;
51 -> 52 ;
53 [label="X[196] <= 0.075\ngini = 0.0649\nsamples = 6789\nvalue = [228, 6561]"] ;
52 -> 53 ;
54 [label="X[218] <= 0.0252\ngini = 0.0634\nsamples = 6779\nvalue = [222, 6557]"] ;
53 -> 54 ;
55 [label="X[268] <= 0.2765\ngini = 0.0618\nsamples = 6769\nvalue = [216, 6553]"] ;
54 -> 55 ;
56 [label="X[194] <= 0.1948\ngini = 0.061\nsamples = 6766\nvalue = [213, 6553]"] ;
55 -> 56 ;
57 [label="X[365] <= 0.0491\ngini = 0.0602\nsamples = 6763\nvalue = [210, 6553]"] ;
56 -> 57 ;
58 [label="X[155] <= 0.0508\ngini = 0.0594\nsamples = 6760\nvalue = [207, 6553]"] ;
57 -> 58 ;
59 [label="X[315] <= 0.1414\ngini = 0.0571\nsamples = 6733\nvalue = [198, 6535]"] ;
58 -> 59 ;
60 [label="X[159] <= 0.0829\ngini = 0.056\nsamples = 6727\nvalue = [194, 6533]"] ;
59 -> 60 ;
61 [label="X[171] <= 0.2465\ngini = 0.0542\nsamples = 6707\nvalue = [187, 6520]"] ;
60 -> 61 ;
62 [label="X[241] <= 0.1909\ngini = 0.0529\nsamples = 6696\nvalue = [182, 6514]"] ;
61 -> 62 ;
63 [label="X[18] <= 0.2296\ngini = 0.0523\nsamples = 6694\nvalue = [180, 6514]"] ;
62 -> 63 ;
64 [label="X[33] <= 0.137\ngini = 0.0518\nsamples = 6692\nvalue = [178, 6514]"] ;
63 -> 64 ;
65 [label="X[88] <= 0.2645\ngini = 0.0512\nsamples = 6690\nvalue = [176, 6514]"] ;
64 -> 65 ;
66 [label="X[27] <= 0.2022\ngini = 0.0507\nsamples = 6688\nvalue = [174, 6514]"] ;
65 -> 66 ;
67 [label="X[228] <= 0.2859\ngini = 0.0501\nsamples = 6686\nvalue = [172, 6514]"] ;
66 -> 67 ;
68 [label="X[353] <= 0.6486\ngini = 0.0496\nsamples = 6684\nvalue = [170, 6514]"] ;
67 -> 68 ;
69 [label="X[46] <= 0.1261\ngini = 0.049\nsamples = 6682\nvalue = [168, 6514]"] ;
68 -> 69 ;
70 [label="X[164] <= 0.1547\ngini = 0.0485\nsamples = 6680\nvalue = [166, 6514]"] ;
69 -> 70 ;
71 [label="X[38] <= 0.3567\ngini = 0.0479\nsamples = 6678\nvalue = [164, 6514]"] ;
70 -> 71 ;
72 [label="X[9] <= 0.0939\ngini = 0.0474\nsamples = 6676\nvalue = [162, 6514]"] ;
71 -> 72 ;
73 [label="X[330] <= 0.3268\ngini = 0.0468\nsamples = 6674\nvalue = [160, 6514]"] ;
72 -> 73 ;
74 [label="X[130] <= 0.1644\ngini = 0.0462\nsamples = 6672\nvalue = [158, 6514]"] ;
73 -> 74 ;
75 [label="X[225] <= 0.1444\ngini = 0.0457\nsamples = 6670\nvalue = [156, 6514]"] ;
74 -> 75 ;
76 [label="X[279] <= 0.2656\ngini = 0.0451\nsamples = 6668\nvalue = [154, 6514]"] ;
75 -> 76 ;
77 [label="X[137] <= 0.255\ngini = 0.0446\nsamples = 6666\nvalue = [152, 6514]"] ;
76 -> 77 ;
78 [label="X[258] <= 0.0548\ngini = 0.044\nsamples = 6664\nvalue = [150, 6514]"] ;
77 -> 78 ;
79 [label="X[233] <= 0.2711\ngini = 0.0435\nsamples = 6661\nvalue = [148, 6513]"] ;
78 -> 79 ;
80 [label="X[82] <= 0.1514\ngini = 0.0429\nsamples = 6658\nvalue = [146, 6512]"] ;
79 -> 80 ;
81 [label="X[339] <= 0.1293\ngini = 0.0416\nsamples = 6640\nvalue = [141, 6499]"] ;
80 -> 81 ;
82 [label="X[328] <= 0.0152\ngini = 0.0402\nsamples = 6622\nvalue = [136, 6486]"] ;
81 -> 82 ;
83 [label="X[234] <= 0.1714\ngini = 0.0399\nsamples = 6621\nvalue = [135, 6486]"] ;
82 -> 83 ;
84 [label="X[106] <= 0.195\ngini = 0.0397\nsamples = 6620\nvalue = [134, 6486]"] ;
83 -> 84 ;
85 [label="X[200] <= 0.2921\ngini = 0.0394\nsamples = 6619\nvalue = [133, 6486]"] ;
84 -> 85 ;
86 [label="X[272] <= 0.1252\ngini = 0.0391\nsamples = 6618\nvalue = [132, 6486]"] ;
85 -> 86 ;
87 [label="X[103] <= 0.0087\ngini = 0.0388\nsamples = 6617\nvalue = [131, 6486]"] ;
86 -> 87 ;
88 [label="X[23] <= 0.0498\ngini = 0.052\nsamples = 4718\nvalue = [126, 4592]"] ;
87 -> 88 ;
89 [label="X[293] <= 0.1047\ngini = 0.0512\nsamples = 4716\nvalue = [124, 4592]"] ;
88 -> 89 ;
90 [label="X[210] <= 0.264\ngini = 0.0505\nsamples = 4711\nvalue = [122, 4589]"] ;
89 -> 90 ;
91 [label="X[119] <= 0.2803\ngini = 0.0497\nsamples = 4706\nvalue = [120, 4586]"] ;
90 -> 91 ;
92 [label="X[212] <= 0.0861\ngini = 0.0483\nsamples = 4688\nvalue = [116, 4572]"] ;
91 -> 92 ;
93 [label="X[158] <= 0.1515\ngini = 0.0472\nsamples = 4677\nvalue = [113, 4564]"] ;
92 -> 93 ;
94 [label="X[191] <= 0.0643\ngini = 0.0457\nsamples = 4657\nvalue = [109, 4548]"] ;
93 -> 94 ;
95 [label="X[359] <= 0.1844\ngini = 0.0446\nsamples = 4645\nvalue = [106, 4539]"] ;
94 -> 95 ;
96 [label="X[353] <= 0.0921\ngini = 0.0438\nsamples = 4639\nvalue = [104, 4535]"] ;
95 -> 96 ;
97 [label="X[184] <= 0.172\ngini = 0.0421\nsamples = 4604\nvalue = [99, 4505]"] ;
96 -> 97 ;
98 [label="X[81] <= 0.1053\ngini = 0.0413\nsamples = 4600\nvalue = [97, 4503]"] ;
97 -> 98 ;
99 [label="X[32] <= 0.218\ngini = 0.0405\nsamples = 4593\nvalue = [95, 4498]"] ;
98 -> 99 ;
100 [label="X[283] <= 0.0793\ngini = 0.0397\nsamples = 4585\nvalue = [93, 4492]"] ;
99 -> 100 ;
101 [label="X[152] <= 0.075\ngini = 0.039\nsamples = 4577\nvalue = [91, 4486]"] ;
100 -> 101 ;
102 [label="X[160] <= 0.0095\ngini = 0.0356\nsamples = 4417\nvalue = [80, 4337]"] ;
101 -> 102 ;
103 [label="X[238] <= 0.2925\ngini = 0.0438\nsamples = 3574\nvalue = [80, 3494]"] ;
102 -> 103 ;
104 [label="X[156] <= 0.0681\ngini = 0.0433\nsamples = 3571\nvalue = [79, 3492]"] ;
103 -> 104 ;
105 [label="X[17] <= 0.0665\ngini = 0.0423\nsamples = 3560\nvalue = [77, 3483]"] ;
104 -> 105 ;
106 [label="X[257] <= 0.0588\ngini = 0.0406\nsamples = 3523\nvalue = [73, 3450]"] ;
105 -> 106 ;
107 [label="X[351] <= 0.0069\ngini = 0.0388\nsamples = 3487\nvalue = [69, 3418]"] ;
106 -> 107 ;
108 [label="X[307] <= 0.1161\ngini = 0.0467\nsamples = 2798\nvalue = [67, 2731]"] ;
107 -> 108 ;
109 [label="X[223] <= 0.092\ngini = 0.0461\nsamples = 2797\nvalue = [66, 2731]"] ;
108 -> 109 ;
110 [label="X[111] <= 0.0498\ngini = 0.0438\nsamples = 2766\nvalue = [62, 2704]"] ;
109 -> 110 ;
111 [label="X[282] <= 0.082\ngini = 0.0426\nsamples = 2756\nvalue = [60, 2696]"] ;
110 -> 111 ;
112 [label="X[8] <= 0.0145\ngini = 0.0409\nsamples = 2728\nvalue = [57, 2671]"] ;
111 -> 112 ;
113 [label="X[221] <= 0.059\ngini = 0.0464\nsamples = 2398\nvalue = [57, 2341]"] ;
112 -> 113 ;
114 [label="X[268] <= 0.1633\ngini = 0.0457\nsamples = 2395\nvalue = [56, 2339]"] ;
113 -> 114 ;
115 [label="X[136] <= 0.0466\ngini = 0.0443\nsamples = 2380\nvalue = [54, 2326]"] ;
114 -> 115 ;
116 [label="X[136] <= 0.0417\ngini = 0.0492\nsamples = 2141\nvalue = [54, 2087]"] ;
115 -> 116 ;
117 [label="X[36] <= 0.0322\ngini = 0.0474\nsamples = 2139\nvalue = [52, 2087]"] ;
116 -> 117 ;
118 [label="X[87] <= 0.0258\ngini = 0.046\nsamples = 2122\nvalue = [50, 2072]"] ;
117 -> 118 ;
119 [label="X[181] <= 0.0777\ngini = 0.0511\nsamples = 1904\nvalue = [50, 1854]"] ;
118 -> 119 ;
120 [label="X[181] <= 0.0685\ngini = 0.0576\nsamples = 1652\nvalue = [49, 1603]"] ;
119 -> 120 ;
121 [label="X[102] <= 0.0139\ngini = 0.0524\nsamples = 1634\nvalue = [44, 1590]"] ;
120 -> 121 ;
122 [label="X[171] <= 0.0325\ngini = 0.0571\nsamples = 1496\nvalue = [44, 1452]"] ;
121 -> 122 ;
123 [label="X[304] <= 0.0217\ngini = 0.0548\nsamples = 1490\nvalue = [42, 1448]"] ;
122 -> 123 ;
124 [label="X[152] <= 0.0669\ngini = 0.0596\nsamples = 1367\nvalue = [42, 1325]"] ;
123 -> 124 ;
125 [label="X[210] <= 0.0221\ngini = 0.0575\nsamples = 1350\nvalue = [40, 1310]"] ;
124 -> 125 ;
126 [label="X[108] <= 0.0367\ngini = 0.062\nsamples = 1250\nvalue = [40, 1210]"] ;
125 -> 126 ;
127 [label="X[29] <= 0.0246\ngini = 0.0648\nsamples = 1194\nvalue = [40, 1154]"] ;
126 -> 127 ;
128 [label="X[177] <= 0.0627\ngini = 0.0675\nsamples = 1144\nvalue = [40, 1104]"] ;
127 -> 128 ;
129 [label="X[374] <= 0.0326\ngini = 0.0703\nsamples = 1096\nvalue = [40, 1056]"] ;
128 -> 129 ;
130 [label="X[309] <= 0.0683\ngini = 0.0729\nsamples = 1056\nvalue = [40, 1016]"] ;
129 -> 130 ;
131 [label="X[309] <= 0.059\ngini = 0.0752\nsamples = 1022\nvalue = [40, 982]"] ;
130 -> 131 ;
132 [label="X[179] <= 0.0394\ngini = 0.0735\nsamples = 1021\nvalue = [39, 982]"] ;
131 -> 132 ;
133 [label="X[361] <= 0.0343\ngini = 0.0714\nsamples = 998\nvalue = [37, 961]"] ;
132 -> 133 ;
134 [label="X[58] <= 0.0289\ngini = 0.0737\nsamples = 965\nvalue = [37, 928]"] ;
133 -> 134 ;
135 [label="X[66] <= 0.0628\ngini = 0.0758\nsamples = 938\nvalue = [37, 901]"] ;
134 -> 135 ;
136 [label="X[59] <= 0.0659\ngini = 0.0779\nsamples = 911\nvalue = [37, 874]"] ;
135 -> 136 ;
137 [label="X[154] <= 0.0765\ngini = 0.0801\nsamples = 885\nvalue = [37, 848]"] ;
136 -> 137 ;
138 [label="X[238] <= 0.0498\ngini = 0.082\nsamples = 864\nvalue = [37, 827]"] ;
137 -> 138 ;
139 [label="X[152] <= 0.0116\ngini = 0.0839\nsamples = 843\nvalue = [37, 806]"] ;
138 -> 139 ;
140 [label="X[249] <= 0.0718\ngini = 0.0855\nsamples = 827\nvalue = [37, 790]"] ;
139 -> 140 ;
141 [label="X[119] <= 0.0342\ngini = 0.0871\nsamples = 811\nvalue = [37, 774]"] ;
140 -> 141 ;
142 [label="X[331] <= 0.0607\ngini = 0.0886\nsamples = 796\nvalue = [37, 759]"] ;
141 -> 142 ;
143 [label="X[268] <= 0.1273\ngini = 0.0902\nsamples = 782\nvalue = [37, 745]"] ;
142 -> 143 ;
144 [label="X[268] <= 0.1211\ngini = 0.0917\nsamples = 768\nvalue = [37, 731]"] ;
143 -> 144 ;
145 [label="X[334] <= 0.0987\ngini = 0.0895\nsamples = 767\nvalue = [36, 731]"] ;
144 -> 145 ;
146 [label="X[265] <= 0.0595\ngini = 0.0908\nsamples = 755\nvalue = [36, 719]"] ;
145 -> 146 ;
147 [label="X[268] <= 0.0472\ngini = 0.0921\nsamples = 744\nvalue = [36, 708]"] ;
146 -> 147 ;
148 [label="X[49] <= 0.1528\ngini = 0.0934\nsamples = 733\nvalue = [36, 697]"] ;
147 -> 148 ;
149 [label="X[187] <= 0.0701\ngini = 0.0946\nsamples = 723\nvalue = [36, 687]"] ;
148 -> 149 ;
150 [label="X[64] <= 0.0667\ngini = 0.0958\nsamples = 714\nvalue = [36, 678]"] ;
149 -> 150 ;
151 [label="X[65] <= 0.0862\ngini = 0.0969\nsamples = 705\nvalue = [36, 669]"] ;
150 -> 151 ;
152 [label="X[273] <= 0.0942\ngini = 0.098\nsamples = 697\nvalue = [36, 661]"] ;
151 -> 152 ;
153 [label="X[207] <= 0.0618\ngini = 0.099\nsamples = 689\nvalue = [36, 653]"] ;
152 -> 153 ;
154 [label="X[224] <= 0.0292\ngini = 0.1001\nsamples = 681\nvalue = [36, 645]"] ;
153 -> 154 ;
155 [label="X[18] <= 0.0625\ngini = 0.1011\nsamples = 674\nvalue = [36, 638]"] ;
154 -> 155 ;
156 [label="X[47] <= 0.1829\ngini = 0.102\nsamples = 668\nvalue = [36, 632]"] ;
155 -> 156 ;
157 [label="X[192] <= 0.1739\ngini = 0.1028\nsamples = 662\nvalue = [36, 626]"] ;
156 -> 157 ;
158 [label="X[74] <= 0.0483\ngini = 0.1037\nsamples = 656\nvalue = [36, 620]"] ;
157 -> 158 ;
159 [label="X[135] <= 0.0408\ngini = 0.1045\nsamples = 651\nvalue = [36, 615]"] ;
158 -> 159 ;
160 [label="X[57] <= 0.2268\ngini = 0.1051\nsamples = 647\nvalue = [36, 611]"] ;
159 -> 160 ;
161 [label="X[195] <= 0.1663\ngini = 0.1057\nsamples = 643\nvalue = [36, 607]"] ;
160 -> 161 ;
162 [label="X[206] <= 0.1186\ngini = 0.1063\nsamples = 639\nvalue = [36, 603]"] ;
161 -> 162 ;
163 [label="X[133] <= 0.137\ngini = 0.107\nsamples = 635\nvalue = [36, 599]"] ;
162 -> 163 ;
164 [label="X[291] <= 0.161\ngini = 0.1076\nsamples = 631\nvalue = [36, 595]"] ;
163 -> 164 ;
165 [label="X[107] <= 0.1977\ngini = 0.1082\nsamples = 627\nvalue = [36, 591]"] ;
164 -> 165 ;
166 [label="X[260] <= 0.1197\ngini = 0.1089\nsamples = 623\nvalue = [36, 587]"] ;
165 -> 166 ;
167 [label="X[272] <= 0.0464\ngini = 0.1096\nsamples = 619\nvalue = [36, 583]"] ;
166 -> 167 ;
168 [label="X[106] <= 0.0932\ngini = 0.1102\nsamples = 615\nvalue = [36, 579]"] ;
167 -> 168 ;
169 [label="X[70] <= 0.3041\ngini = 0.1109\nsamples = 611\nvalue = [36, 575]"] ;
168 -> 169 ;
170 [label="X[100] <= 0.106\ngini = 0.1116\nsamples = 607\nvalue = [36, 571]"] ;
169 -> 170 ;
171 [label="X[308] <= 0.1252\ngini = 0.1121\nsamples = 604\nvalue = [36, 568]"] ;
170 -> 171 ;
172 [label="X[67] <= 0.1669\ngini = 0.1126\nsamples = 601\nvalue = [36, 565]"] ;
171 -> 172 ;
173 [label="X[371] <= 0.1047\ngini = 0.1132\nsamples = 598\nvalue = [36, 562]"] ;
172 -> 173 ;
174 [label="X[199] <= 0.1754\ngini = 0.1137\nsamples = 595\nvalue = [36, 559]"] ;
173 -> 174 ;
175 [label="X[263] <= 0.0284\ngini = 0.1142\nsamples = 592\nvalue = [36, 556]"] ;
174 -> 175 ;
176 [label="X[321] <= 0.1749\ngini = 0.1148\nsamples = 589\nvalue = [36, 553]"] ;
175 -> 176 ;
177 [label="X[370] <= 0.1809\ngini = 0.1153\nsamples = 586\nvalue = [36, 550]"] ;
176 -> 177 ;
178 [label="X[362] <= 0.0765\ngini = 0.1159\nsamples = 583\nvalue = [36, 547]"] ;
177 -> 178 ;
179 [label="X[286] <= 0.0653\ngini = 0.1164\nsamples = 580\nvalue = [36, 544]"] ;
178 -> 179 ;
180 [label="X[301] <= 0.0524\ngini = 0.117\nsamples = 577\nvalue = [36, 541]"] ;
179 -> 180 ;
181 [label="X[3] <= 0.1003\ngini = 0.1176\nsamples = 574\nvalue = [36, 538]"] ;
180 -> 181 ;
182 [label="X[320] <= 0.0691\ngini = 0.1181\nsamples = 571\nvalue = [36, 535]"] ;
181 -> 182 ;
183 [label="X[271] <= 0.0606\ngini = 0.1187\nsamples = 568\nvalue = [36, 532]"] ;
182 -> 183 ;
184 [label="X[349] <= 0.1325\ngini = 0.1193\nsamples = 565\nvalue = [36, 529]"] ;
183 -> 184 ;
185 [label="X[368] <= 0.2045\ngini = 0.1199\nsamples = 562\nvalue = [36, 526]"] ;
184 -> 185 ;
186 [label="X[130] <= 0.0571\ngini = 0.1205\nsamples = 559\nvalue = [36, 523]"] ;
185 -> 186 ;
187 [label="X[198] <= 0.1852\ngini = 0.1209\nsamples = 557\nvalue = [36, 521]"] ;
186 -> 187 ;
188 [label="X[316] <= 0.0779\ngini = 0.1213\nsamples = 555\nvalue = [36, 519]"] ;
187 -> 188 ;
189 [label="X[230] <= 0.1882\ngini = 0.1217\nsamples = 553\nvalue = [36, 517]"] ;
188 -> 189 ;
190 [label="gini = 0.1219\nsamples = 552\nvalue = [36, 516]"] ;
189 -> 190 ;
191 [label="gini = 0.0\nsamples = 1\nvalue = [0, 1]"] ;
189 -> 191 ;
192 [label="gini = 0.0\nsamples = 2\nvalue = [0, 2]"] ;
188 -> 192 ;
193 [label="gini = 0.0\nsamples = 2\nvalue = [0, 2]"] ;
187 -> 193 ;
194 [label="gini = 0.0\nsamples = 2\nvalue = [0, 2]"] ;
186 -> 194 ;
195 [label="gini = 0.0\nsamples = 3\nvalue = [0, 3]"] ;
185 -> 195 ;
196 [label="gini = 0.0\nsamples = 3\nvalue = [0, 3]"] ;
184 -> 196 ;
197 [label="gini = 0.0\nsamples = 3\nvalue = [0, 3]"] ;
183 -> 197 ;
198 [label="gini = 0.0\nsamples = 3\nvalue = [0, 3]"] ;
182 -> 198 ;
199 [label="gini = 0.0\nsamples = 3\nvalue = [0, 3]"] ;
181 -> 199 ;
200 [label="gini = 0.0\nsamples = 3\nvalue = [0, 3]"] ;
180 -> 200 ;
201 [label="gini = 0.0\nsamples = 3\nvalue = [0, 3]"] ;
179 -> 201 ;
202 [label="gini = 0.0\nsamples = 3\nvalue = [0, 3]"] ;
178 -> 202 ;
203 [label="gini = 0.0\nsamples = 3\nvalue = [0, 3]"] ;
177 -> 203 ;
204 [label="gini = 0.0\nsamples = 3\nvalue = [0, 3]"] ;
176 -> 204 ;
205 [label="gini = 0.0\nsamples = 3\nvalue = [0, 3]"] ;
175 -> 205 ;
206 [label="gini = 0.0\nsamples = 3\nvalue = [0, 3]"] ;
174 -> 206 ;
207 [label="gini = 0.0\nsamples = 3\nvalue = [0, 3]"] ;
173 -> 207 ;
208 [label="gini = 0.0\nsamples = 3\nvalue = [0, 3]"] ;
172 -> 208 ;
209 [label="gini = 0.0\nsamples = 3\nvalue = [0, 3]"] ;
171 -> 209 ;
210 [label="gini = 0.0\nsamples = 3\nvalue = [0, 3]"] ;
170 -> 210 ;
211 [label="gini = 0.0\nsamples = 4\nvalue = [0, 4]"] ;
169 -> 211 ;
212 [label="gini = 0.0\nsamples = 4\nvalue = [0, 4]"] ;
168 -> 212 ;
213 [label="gini = 0.0\nsamples = 4\nvalue = [0, 4]"] ;
167 -> 213 ;
214 [label="gini = 0.0\nsamples = 4\nvalue = [0, 4]"] ;
166 -> 214 ;
215 [label="gini = 0.0\nsamples = 4\nvalue = [0, 4]"] ;
165 -> 215 ;
216 [label="gini = 0.0\nsamples = 4\nvalue = [0, 4]"] ;
164 -> 216 ;
217 [label="gini = 0.0\nsamples = 4\nvalue = [0, 4]"] ;
163 -> 217 ;
218 [label="gini = 0.0\nsamples = 4\nvalue = [0, 4]"] ;
162 -> 218 ;
219 [label="gini = 0.0\nsamples = 4\nvalue = [0, 4]"] ;
161 -> 219 ;
220 [label="gini = 0.0\nsamples = 4\nvalue = [0, 4]"] ;
160 -> 220 ;
221 [label="gini = 0.0\nsamples = 4\nvalue = [0, 4]"] ;
159 -> 221 ;
222 [label="gini = 0.0\nsamples = 5\nvalue = [0, 5]"] ;
158 -> 222 ;
223 [label="gini = 0.0\nsamples = 6\nvalue = [0, 6]"] ;
157 -> 223 ;
224 [label="gini = 0.0\nsamples = 6\nvalue = [0, 6]"] ;
156 -> 224 ;
225 [label="gini = 0.0\nsamples = 6\nvalue = [0, 6]"] ;
155 -> 225 ;
226 [label="gini = 0.0\nsamples = 7\nvalue = [0, 7]"] ;
154 -> 226 ;
227 [label="gini = 0.0\nsamples = 8\nvalue = [0, 8]"] ;
153 -> 227 ;
228 [label="gini = 0.0\nsamples = 8\nvalue = [0, 8]"] ;
152 -> 228 ;
229 [label="gini = 0.0\nsamples = 8\nvalue = [0, 8]"] ;
151 -> 229 ;
230 [label="gini = 0.0\nsamples = 9\nvalue = [0, 9]"] ;
150 -> 230 ;
231 [label="gini = 0.0\nsamples = 9\nvalue = [0, 9]"] ;
149 -> 231 ;
232 [label="gini = 0.0\nsamples = 10\nvalue = [0, 10]"] ;
148 -> 232 ;
233 [label="gini = 0.0\nsamples = 11\nvalue = [0, 11]"] ;
147 -> 233 ;
234 [label="gini = 0.0\nsamples = 11\nvalue = [0, 11]"] ;
146 -> 234 ;
235 [label="gini = 0.0\nsamples = 12\nvalue = [0, 12]"] ;
145 -> 235 ;
236 [label="gini = 0.0\nsamples = 1\nvalue = [1, 0]"] ;
144 -> 236 ;
237 [label="gini = 0.0\nsamples = 14\nvalue = [0, 14]"] ;
143 -> 237 ;
238 [label="gini = 0.0\nsamples = 14\nvalue = [0, 14]"] ;
142 -> 238 ;
239 [label="gini = 0.0\nsamples = 15\nvalue = [0, 15]"] ;
141 -> 239 ;
240 [label="gini = 0.0\nsamples = 16\nvalue = [0, 16]"] ;
140 -> 240 ;
241 [label="gini = 0.0\nsamples = 16\nvalue = [0, 16]"] ;
139 -> 241 ;
242 [label="gini = 0.0\nsamples = 21\nvalue = [0, 21]"] ;
138 -> 242 ;
243 [label="gini = 0.0\nsamples = 21\nvalue = [0, 21]"] ;
137 -> 243 ;
244 [label="gini = 0.0\nsamples = 26\nvalue = [0, 26]"] ;
136 -> 244 ;
245 [label="gini = 0.0\nsamples = 27\nvalue = [0, 27]"] ;
135 -> 245 ;
246 [label="gini = 0.0\nsamples = 27\nvalue = [0, 27]"] ;
134 -> 246 ;
247 [label="gini = 0.0\nsamples = 33\nvalue = [0, 33]"] ;
133 -> 247 ;
248 [label="gini = 0.1588\nsamples = 23\nvalue = [2, 21]"] ;
132 -> 248 ;
249 [label="gini = 0.0\nsamples = 1\nvalue = [1, 0]"] ;
131 -> 249 ;
250 [label="gini = 0.0\nsamples = 34\nvalue = [0, 34]"] ;
130 -> 250 ;
251 [label="gini = 0.0\nsamples = 40\nvalue = [0, 40]"] ;
129 -> 251 ;
252 [label="gini = 0.0\nsamples = 48\nvalue = [0, 48]"] ;
128 -> 252 ;
253 [label="gini = 0.0\nsamples = 50\nvalue = [0, 50]"] ;
127 -> 253 ;
254 [label="gini = 0.0\nsamples = 56\nvalue = [0, 56]"] ;
126 -> 254 ;
255 [label="gini = 0.0\nsamples = 100\nvalue = [0, 100]"] ;
125 -> 255 ;
256 [label="gini = 0.2076\nsamples = 17\nvalue = [2, 15]"] ;
124 -> 256 ;
257 [label="gini = 0.0\nsamples = 123\nvalue = [0, 123]"] ;
123 -> 257 ;
258 [label="gini = 0.4444\nsamples = 6\nvalue = [2, 4]"] ;
122 -> 258 ;
259 [label="gini = 0.0\nsamples = 138\nvalue = [0, 138]"] ;
121 -> 259 ;
260 [label="gini = 0.4012\nsamples = 18\nvalue = [5, 13]"] ;
120 -> 260 ;
261 [label="X[142] <= 0.0583\ngini = 0.0079\nsamples = 252\nvalue = [1, 251]"] ;
119 -> 261 ;
262 [label="gini = 0.0\nsamples = 247\nvalue = [0, 247]"] ;
261 -> 262 ;
263 [label="gini = 0.32\nsamples = 5\nvalue = [1, 4]"] ;
261 -> 263 ;
264 [label="gini = 0.0\nsamples = 218\nvalue = [0, 218]"] ;
118 -> 264 ;
265 [label="gini = 0.2076\nsamples = 17\nvalue = [2, 15]"] ;
117 -> 265 ;
266 [label="gini = 0.0\nsamples = 2\nvalue = [2, 0]"] ;
116 -> 266 ;
267 [label="gini = 0.0\nsamples = 239\nvalue = [0, 239]"] ;
115 -> 267 ;
268 [label="gini = 0.2311\nsamples = 15\nvalue = [2, 13]"] ;
114 -> 268 ;
269 [label="gini = 0.4444\nsamples = 3\nvalue = [1, 2]"] ;
113 -> 269 ;
270 [label="gini = 0.0\nsamples = 330\nvalue = [0, 330]"] ;
112 -> 270 ;
271 [label="gini = 0.1913\nsamples = 28\nvalue = [3, 25]"] ;
111 -> 271 ;
272 [label="gini = 0.32\nsamples = 10\nvalue = [2, 8]"] ;
110 -> 272 ;
273 [label="gini = 0.2248\nsamples = 31\nvalue = [4, 27]"] ;
109 -> 273 ;
274 [label="gini = 0.0\nsamples = 1\nvalue = [1, 0]"] ;
108 -> 274 ;
275 [label="X[102] <= 0.1144\ngini = 0.0058\nsamples = 689\nvalue = [2, 687]"] ;
107 -> 275 ;
276 [label="gini = 0.0\nsamples = 676\nvalue = [0, 676]"] ;
275 -> 276 ;
277 [label="gini = 0.2604\nsamples = 13\nvalue = [2, 11]"] ;
275 -> 277 ;
278 [label="gini = 0.1975\nsamples = 36\nvalue = [4, 32]"] ;
106 -> 278 ;
279 [label="gini = 0.1928\nsamples = 37\nvalue = [4, 33]"] ;
105 -> 279 ;
280 [label="gini = 0.2975\nsamples = 11\nvalue = [2, 9]"] ;
104 -> 280 ;
281 [label="gini = 0.4444\nsamples = 3\nvalue = [1, 2]"] ;
103 -> 281 ;
282 [label="gini = 0.0\nsamples = 843\nvalue = [0, 843]"] ;
102 -> 282 ;
283 [label="X[152] <= 0.0753\ngini = 0.128\nsamples = 160\nvalue = [11, 149]"] ;
101 -> 283 ;
284 [label="gini = 0.0\nsamples = 2\nvalue = [2, 0]"] ;
283 -> 284 ;
285 [label="X[32] <= 0.0448\ngini = 0.1074\nsamples = 158\nvalue = [9, 149]"] ;
283 -> 285 ;
286 [label="X[137] <= 0.0378\ngini = 0.0857\nsamples = 156\nvalue = [7, 149]"] ;
285 -> 286 ;
287 [label="X[247] <= 0.0324\ngini = 0.0744\nsamples = 155\nvalue = [6, 149]"] ;
286 -> 287 ;
288 [label="X[179] <= 0.0866\ngini = 0.0537\nsamples = 145\nvalue = [4, 141]"] ;
287 -> 288 ;
289 [label="gini = 0.0\nsamples = 81\nvalue = [0, 81]"] ;
288 -> 289 ;
290 [label="X[179] <= 0.0892\ngini = 0.1172\nsamples = 64\nvalue = [4, 60]"] ;
288 -> 290 ;
291 [label="gini = 0.0\nsamples = 2\nvalue = [2, 0]"] ;
290 -> 291 ;
292 [label="X[179] <= 0.1014\ngini = 0.0624\nsamples = 62\nvalue = [2, 60]"] ;
290 -> 292 ;
293 [label="gini = 0.0\nsamples = 36\nvalue = [0, 36]"] ;
292 -> 293 ;
294 [label="gini = 0.142\nsamples = 26\nvalue = [2, 24]"] ;
292 -> 294 ;
295 [label="gini = 0.32\nsamples = 10\nvalue = [2, 8]"] ;
287 -> 295 ;
296 [label="gini = 0.0\nsamples = 1\nvalue = [1, 0]"] ;
286 -> 296 ;
297 [label="gini = 0.0\nsamples = 2\nvalue = [2, 0]"] ;
285 -> 297 ;
298 [label="gini = 0.375\nsamples = 8\nvalue = [2, 6]"] ;
100 -> 298 ;
299 [label="gini = 0.375\nsamples = 8\nvalue = [2, 6]"] ;
99 -> 299 ;
300 [label="gini = 0.4082\nsamples = 7\nvalue = [2, 5]"] ;
98 -> 300 ;
301 [label="gini = 0.5\nsamples = 4\nvalue = [2, 2]"] ;
97 -> 301 ;
302 [label="gini = 0.2449\nsamples = 35\nvalue = [5, 30]"] ;
96 -> 302 ;
303 [label="gini = 0.4444\nsamples = 6\nvalue = [2, 4]"] ;
95 -> 303 ;
304 [label="gini = 0.375\nsamples = 12\nvalue = [3, 9]"] ;
94 -> 304 ;
305 [label="gini = 0.32\nsamples = 20\nvalue = [4, 16]"] ;
93 -> 305 ;
306 [label="gini = 0.3967\nsamples = 11\nvalue = [3, 8]"] ;
92 -> 306 ;
307 [label="gini = 0.3457\nsamples = 18\nvalue = [4, 14]"] ;
91 -> 307 ;
308 [label="gini = 0.48\nsamples = 5\nvalue = [2, 3]"] ;
90 -> 308 ;
309 [label="gini = 0.48\nsamples = 5\nvalue = [2, 3]"] ;
89 -> 309 ;
310 [label="gini = 0.0\nsamples = 2\nvalue = [2, 0]"] ;
88 -> 310 ;
311 [label="X[367] <= 0.1087\ngini = 0.0053\nsamples = 1899\nvalue = [5, 1894]"] ;
87 -> 311 ;
312 [label="X[21] <= 0.1922\ngini = 0.0032\nsamples = 1897\nvalue = [3, 1894]"] ;
311 -> 312 ;
313 [label="X[181] <= 0.1791\ngini = 0.0021\nsamples = 1896\nvalue = [2, 1894]"] ;
312 -> 313 ;
314 [label="gini = 0.0\nsamples = 1879\nvalue = [0, 1879]"] ;
313 -> 314 ;
315 [label="gini = 0.2076\nsamples = 17\nvalue = [2, 15]"] ;
313 -> 315 ;
316 [label="gini = 0.0\nsamples = 1\nvalue = [1, 0]"] ;
312 -> 316 ;
317 [label="gini = 0.0\nsamples = 2\nvalue = [2, 0]"] ;
311 -> 317 ;
318 [label="gini = 0.0\nsamples = 1\nvalue = [1, 0]"] ;
86 -> 318 ;
319 [label="gini = 0.0\nsamples = 1\nvalue = [1, 0]"] ;
85 -> 319 ;
320 [label="gini = 0.0\nsamples = 1\nvalue = [1, 0]"] ;
84 -> 320 ;
321 [label="gini = 0.0\nsamples = 1\nvalue = [1, 0]"] ;
83 -> 321 ;
322 [label="gini = 0.0\nsamples = 1\nvalue = [1, 0]"] ;
82 -> 322 ;
323 [label="gini = 0.4012\nsamples = 18\nvalue = [5, 13]"] ;
81 -> 323 ;
324 [label="gini = 0.4012\nsamples = 18\nvalue = [5, 13]"] ;
80 -> 324 ;
325 [label="gini = 0.4444\nsamples = 3\nvalue = [2, 1]"] ;
79 -> 325 ;
326 [label="gini = 0.4444\nsamples = 3\nvalue = [2, 1]"] ;
78 -> 326 ;
327 [label="gini = 0.0\nsamples = 2\nvalue = [2, 0]"] ;
77 -> 327 ;
328 [label="gini = 0.0\nsamples = 2\nvalue = [2, 0]"] ;
76 -> 328 ;
329 [label="gini = 0.0\nsamples = 2\nvalue = [2, 0]"] ;
75 -> 329 ;
330 [label="gini = 0.0\nsamples = 2\nvalue = [2, 0]"] ;
74 -> 330 ;
331 [label="gini = 0.0\nsamples = 2\nvalue = [2, 0]"] ;
73 -> 331 ;
332 [label="gini = 0.0\nsamples = 2\nvalue = [2, 0]"] ;
72 -> 332 ;
333 [label="gini = 0.0\nsamples = 2\nvalue = [2, 0]"] ;
71 -> 333 ;
334 [label="gini = 0.0\nsamples = 2\nvalue = [2, 0]"] ;
70 -> 334 ;
335 [label="gini = 0.0\nsamples = 2\nvalue = [2, 0]"] ;
69 -> 335 ;
336 [label="gini = 0.0\nsamples = 2\nvalue = [2, 0]"] ;
68 -> 336 ;
337 [label="gini = 0.0\nsamples = 2\nvalue = [2, 0]"] ;
67 -> 337 ;
338 [label="gini = 0.0\nsamples = 2\nvalue = [2, 0]"] ;
66 -> 338 ;
339 [label="gini = 0.0\nsamples = 2\nvalue = [2, 0]"] ;
65 -> 339 ;
340 [label="gini = 0.0\nsamples = 2\nvalue = [2, 0]"] ;
64 -> 340 ;
341 [label="gini = 0.0\nsamples = 2\nvalue = [2, 0]"] ;
63 -> 341 ;
342 [label="gini = 0.0\nsamples = 2\nvalue = [2, 0]"] ;
62 -> 342 ;
343 [label="gini = 0.4959\nsamples = 11\nvalue = [5, 6]"] ;
61 -> 343 ;
344 [label="gini = 0.455\nsamples = 20\nvalue = [7, 13]"] ;
60 -> 344 ;
345 [label="gini = 0.4444\nsamples = 6\nvalue = [4, 2]"] ;
59 -> 345 ;
346 [label="gini = 0.4444\nsamples = 27\nvalue = [9, 18]"] ;
58 -> 346 ;
347 [label="gini = 0.0\nsamples = 3\nvalue = [3, 0]"] ;
57 -> 347 ;
348 [label="gini = 0.0\nsamples = 3\nvalue = [3, 0]"] ;
56 -> 348 ;
349 [label="gini = 0.0\nsamples = 3\nvalue = [3, 0]"] ;
55 -> 349 ;
350 [label="gini = 0.48\nsamples = 10\nvalue = [6, 4]"] ;
54 -> 350 ;
351 [label="gini = 0.48\nsamples = 10\nvalue = [6, 4]"] ;
53 -> 351 ;
352 [label="gini = 0.0\nsamples = 4\nvalue = [4, 0]"] ;
52 -> 352 ;
353 [label="gini = 0.0\nsamples = 4\nvalue = [4, 0]"] ;
51 -> 353 ;
354 [label="gini = 0.0\nsamples = 4\nvalue = [4, 0]"] ;
50 -> 354 ;
355 [label="gini = 0.0\nsamples = 4\nvalue = [4, 0]"] ;
49 -> 355 ;
356 [label="gini = 0.0\nsamples = 4\nvalue = [4, 0]"] ;
48 -> 356 ;
357 [label="gini = 0.0\nsamples = 4\nvalue = [4, 0]"] ;
47 -> 357 ;
358 [label="gini = 0.2778\nsamples = 6\nvalue = [5, 1]"] ;
46 -> 358 ;
359 [label="gini = 0.2778\nsamples = 6\nvalue = [5, 1]"] ;
45 -> 359 ;
360 [label="gini = 0.2778\nsamples = 6\nvalue = [5, 1]"] ;
44 -> 360 ;
361 [label="X[152] <= 0.044\ngini = 0.4543\nsamples = 43\nvalue = [15, 28]"] ;
43 -> 361 ;
362 [label="gini = 0.2907\nsamples = 34\nvalue = [6, 28]"] ;
361 -> 362 ;
363 [label="gini = 0.0\nsamples = 9\nvalue = [9, 0]"] ;
361 -> 363 ;
364 [label="gini = 0.42\nsamples = 10\nvalue = [7, 3]"] ;
42 -> 364 ;
365 [label="gini = 0.2449\nsamples = 7\nvalue = [6, 1]"] ;
41 -> 365 ;
366 [label="gini = 0.4978\nsamples = 30\nvalue = [14, 16]"] ;
40 -> 366 ;
367 [label="gini = 0.0\nsamples = 6\nvalue = [6, 0]"] ;
39 -> 367 ;
368 [label="gini = 0.4959\nsamples = 22\nvalue = [12, 10]"] ;
38 -> 368 ;
369 [label="gini = 0.498\nsamples = 32\nvalue = [15, 17]"] ;
37 -> 369 ;
370 [label="gini = 0.4082\nsamples = 14\nvalue = [10, 4]"] ;
36 -> 370 ;
371 [label="gini = 0.1975\nsamples = 9\nvalue = [8, 1]"] ;
35 -> 371 ;
372 [label="gini = 0.0\nsamples = 8\nvalue = [8, 0]"] ;
34 -> 372 ;
373 [label="gini = 0.4152\nsamples = 17\nvalue = [12, 5]"] ;
33 -> 373 ;
374 [label="X[186] <= 0.0118\ngini = 0.4761\nsamples = 64\nvalue = [25, 39]"] ;
32 -> 374 ;
375 [label="X[194] <= 0.027\ngini = 0.4012\nsamples = 54\nvalue = [15, 39]"] ;
374 -> 375 ;
376 [label="X[343] <= 0.0452\ngini = 0.3047\nsamples = 48\nvalue = [9, 39]"] ;
375 -> 376 ;
377 [label="gini = 0.32\nsamples = 5\nvalue = [4, 1]"] ;
376 -> 377 ;
378 [label="X[91] <= 0.0612\ngini = 0.2055\nsamples = 43\nvalue = [5, 38]"] ;
376 -> 378 ;
379 [label="X[327] <= 0.0323\ngini = 0.1356\nsamples = 41\nvalue = [3, 38]"] ;
378 -> 379 ;
380 [label="gini = 0.05\nsamples = 39\nvalue = [1, 38]"] ;
379 -> 380 ;
381 [label="gini = 0.0\nsamples = 2\nvalue = [2, 0]"] ;
379 -> 381 ;
382 [label="gini = 0.0\nsamples = 2\nvalue = [2, 0]"] ;
378 -> 382 ;
383 [label="gini = 0.0\nsamples = 6\nvalue = [6, 0]"] ;
375 -> 383 ;
384 [label="gini = 0.0\nsamples = 10\nvalue = [10, 0]"] ;
374 -> 384 ;
385 [label="gini = 0.2778\nsamples = 12\nvalue = [10, 2]"] ;
31 -> 385 ;
386 [label="gini = 0.0\nsamples = 10\nvalue = [10, 0]"] ;
30 -> 386 ;
387 [label="gini = 0.0\nsamples = 10\nvalue = [10, 0]"] ;
29 -> 387 ;
388 [label="X[268] <= 0.0364\ngini = 0.495\nsamples = 60\nvalue = [27, 33]"] ;
28 -> 388 ;
389 [label="X[133] <= 0.1088\ngini = 0.4488\nsamples = 50\nvalue = [17, 33]"] ;
388 -> 389 ;
390 [label="X[336] <= 0.0339\ngini = 0.4055\nsamples = 46\nvalue = [13, 33]"] ;
389 -> 390 ;
391 [label="X[82] <= 0.1044\ngini = 0.3367\nsamples = 42\nvalue = [9, 33]"] ;
390 -> 391 ;
392 [label="gini = 0.2285\nsamples = 38\nvalue = [5, 33]"] ;
391 -> 392 ;
393 [label="gini = 0.0\nsamples = 4\nvalue = [4, 0]"] ;
391 -> 393 ;
394 [label="gini = 0.0\nsamples = 4\nvalue = [4, 0]"] ;
390 -> 394 ;
395 [label="gini = 0.0\nsamples = 4\nvalue = [4, 0]"] ;
389 -> 395 ;
396 [label="gini = 0.0\nsamples = 10\nvalue = [10, 0]"] ;
388 -> 396 ;
397 [label="gini = 0.0\nsamples = 13\nvalue = [13, 0]"] ;
27 -> 397 ;
398 [label="gini = 0.0\nsamples = 14\nvalue = [14, 0]"] ;
26 -> 398 ;
399 [label="gini = 0.0\nsamples = 15\nvalue = [15, 0]"] ;
25 -> 399 ;
400 [label="gini = 0.0\nsamples = 15\nvalue = [15, 0]"] ;
24 -> 400 ;
401 [label="gini = 0.0\nsamples = 16\nvalue = [16, 0]"] ;
23 -> 401 ;
402 [label="gini = 0.0\nsamples = 17\nvalue = [17, 0]"] ;
22 -> 402 ;
403 [label="gini = 0.095\nsamples = 20\nvalue = [19, 1]"] ;
21 -> 403 ;
404 [label="gini = 0.32\nsamples = 30\nvalue = [24, 6]"] ;
20 -> 404 ;
405 [label="X[268] <= 0.003\ngini = 0.375\nsamples = 44\nvalue = [33, 11]"] ;
19 -> 405 ;
406 [label="gini = 0.0\nsamples = 8\nvalue = [0, 8]"] ;
405 -> 406 ;
407 [label="gini = 0.1528\nsamples = 36\nvalue = [33, 3]"] ;
405 -> 407 ;
408 [label="X[249] <= 0.0347\ngini = 0.492\nsamples = 87\nvalue = [49, 38]"] ;
18 -> 408 ;
409 [label="X[102] <= 0.0174\ngini = 0.4671\nsamples = 78\nvalue = [49, 29]"] ;
408 -> 409 ;
410 [label="X[347] <= 0.1234\ngini = 0.3829\nsamples = 62\nvalue = [46, 16]"] ;
409 -> 410 ;
411 [label="X[165] <= 0.1677\ngini = 0.3282\nsamples = 58\nvalue = [46, 12]"] ;
410 -> 411 ;
412 [label="X[136] <= 0.0976\ngini = 0.2524\nsamples = 54\nvalue = [46, 8]"] ;
411 -> 412 ;
413 [label="X[246] <= 0.0792\ngini = 0.1769\nsamples = 51\nvalue = [46, 5]"] ;
412 -> 413 ;
414 [label="X[236] <= 0.2816\ngini = 0.115\nsamples = 49\nvalue = [46, 3]"] ;
413 -> 414 ;
415 [label="gini = 0.0\nsamples = 44\nvalue = [44, 0]"] ;
414 -> 415 ;
416 [label="gini = 0.48\nsamples = 5\nvalue = [2, 3]"] ;
414 -> 416 ;
417 [label="gini = 0.0\nsamples = 2\nvalue = [0, 2]"] ;
413 -> 417 ;
418 [label="gini = 0.0\nsamples = 3\nvalue = [0, 3]"] ;
412 -> 418 ;
419 [label="gini = 0.0\nsamples = 4\nvalue = [0, 4]"] ;
411 -> 419 ;
420 [label="gini = 0.0\nsamples = 4\nvalue = [0, 4]"] ;
410 -> 420 ;
421 [label="gini = 0.3047\nsamples = 16\nvalue = [3, 13]"] ;
409 -> 421 ;
422 [label="gini = 0.0\nsamples = 9\nvalue = [0, 9]"] ;
408 -> 422 ;
423 [label="gini = 0.074\nsamples = 26\nvalue = [25, 1]"] ;
17 -> 423 ;
424 [label="gini = 0.1172\nsamples = 32\nvalue = [30, 2]"] ;
16 -> 424 ;
425 [label="gini = 0.0\nsamples = 28\nvalue = [28, 0]"] ;
15 -> 425 ;
426 [label="X[103] <= 0.0214\ngini = 0.2952\nsamples = 50\nvalue = [41, 9]"] ;
14 -> 426 ;
427 [label="gini = 0.0\nsamples = 37\nvalue = [37, 0]"] ;
426 -> 427 ;
428 [label="gini = 0.426\nsamples = 13\nvalue = [4, 9]"] ;
426 -> 428 ;
429 [label="X[103] <= 0.1303\ngini = 0.4813\nsamples = 414\nvalue = [167, 247]"] ;
13 -> 429 ;
430 [label="X[8] <= 0.0566\ngini = 0.4972\nsamples = 359\nvalue = [166, 193]"] ;
429 -> 430 ;
431 [label="X[192] <= 0.0626\ngini = 0.4999\nsamples = 328\nvalue = [166, 162]"] ;
430 -> 431 ;
432 [label="X[87] <= 0.0809\ngini = 0.4972\nsamples = 309\nvalue = [166, 143]"] ;
431 -> 432 ;
433 [label="X[154] <= 0.0658\ngini = 0.4901\nsamples = 291\nvalue = [166, 125]"] ;
432 -> 433 ;
434 [label="X[59] <= 0.1023\ngini = 0.4835\nsamples = 281\nvalue = [166, 115]"] ;
433 -> 434 ;
435 [label="X[82] <= 0.2742\ngini = 0.4757\nsamples = 272\nvalue = [166, 106]"] ;
434 -> 435 ;
436 [label="X[165] <= 0.1291\ngini = 0.4668\nsamples = 264\nvalue = [166, 98]"] ;
435 -> 436 ;
437 [label="X[351] <= 0.1906\ngini = 0.4559\nsamples = 256\nvalue = [166, 90]"] ;
436 -> 437 ;
438 [label="X[195] <= 0.1267\ngini = 0.4222\nsamples = 218\nvalue = [152, 66]"] ;
437 -> 438 ;
439 [label="X[273] <= 0.0503\ngini = 0.3998\nsamples = 210\nvalue = [152, 58]"] ;
438 -> 439 ;
440 [label="X[237] <= 0.14\ngini = 0.3799\nsamples = 204\nvalue = [152, 52]"] ;
439 -> 440 ;
441 [label="X[181] <= 0.1529\ngini = 0.3608\nsamples = 199\nvalue = [152, 47]"] ;
440 -> 441 ;
442 [label="X[238] <= 0.1027\ngini = 0.3392\nsamples = 194\nvalue = [152, 42]"] ;
441 -> 442 ;
443 [label="X[127] <= 0.1551\ngini = 0.32\nsamples = 190\nvalue = [152, 38]"] ;
442 -> 443 ;
444 [label="X[3] <= 0.1405\ngini = 0.2988\nsamples = 186\nvalue = [152, 34]"] ;
443 -> 444 ;
445 [label="X[309] <= 0.214\ngini = 0.2753\nsamples = 182\nvalue = [152, 30]"] ;
444 -> 445 ;
446 [label="X[120] <= 0.1265\ngini = 0.2378\nsamples = 174\nvalue = [150, 24]"] ;
445 -> 446 ;
447 [label="X[108] <= 0.1125\ngini = 0.2076\nsamples = 170\nvalue = [150, 20]"] ;
446 -> 447 ;
448 [label="X[249] <= 0.191\ngini = 0.1829\nsamples = 167\nvalue = [150, 17]"] ;
447 -> 448 ;
449 [label="X[351] <= 0.0966\ngini = 0.157\nsamples = 163\nvalue = [149, 14]"] ;
448 -> 449 ;
450 [label="gini = 0.4082\nsamples = 28\nvalue = [20, 8]"] ;
449 -> 450 ;
451 [label="X[268] <= 0.1053\ngini = 0.0849\nsamples = 135\nvalue = [129, 6]"] ;
449 -> 451 ;
452 [label="X[268] <= 0.105\ngini = 0.1284\nsamples = 87\nvalue = [81, 6]"] ;
451 -> 452 ;
453 [label="X[351] <= 0.1184\ngini = 0.1095\nsamples = 86\nvalue = [81, 5]"] ;
452 -> 453 ;
454 [label="gini = 0.0\nsamples = 51\nvalue = [51, 0]"] ;
453 -> 454 ;
455 [label="gini = 0.2449\nsamples = 35\nvalue = [30, 5]"] ;
453 -> 455 ;
456 [label="gini = 0.0\nsamples = 1\nvalue = [0, 1]"] ;
452 -> 456 ;
457 [label="gini = 0.0\nsamples = 48\nvalue = [48, 0]"] ;
451 -> 457 ;
458 [label="gini = 0.375\nsamples = 4\nvalue = [1, 3]"] ;
448 -> 458 ;
459 [label="gini = 0.0\nsamples = 3\nvalue = [0, 3]"] ;
447 -> 459 ;
460 [label="gini = 0.0\nsamples = 4\nvalue = [0, 4]"] ;
446 -> 460 ;
461 [label="gini = 0.375\nsamples = 8\nvalue = [2, 6]"] ;
445 -> 461 ;
462 [label="gini = 0.0\nsamples = 4\nvalue = [0, 4]"] ;
444 -> 462 ;
463 [label="gini = 0.0\nsamples = 4\nvalue = [0, 4]"] ;
443 -> 463 ;
464 [label="gini = 0.0\nsamples = 4\nvalue = [0, 4]"] ;
442 -> 464 ;
465 [label="gini = 0.0\nsamples = 5\nvalue = [0, 5]"] ;
441 -> 465 ;
466 [label="gini = 0.0\nsamples = 5\nvalue = [0, 5]"] ;
440 -> 466 ;
467 [label="gini = 0.0\nsamples = 6\nvalue = [0, 6]"] ;
439 -> 467 ;
468 [label="gini = 0.0\nsamples = 8\nvalue = [0, 8]"] ;
438 -> 468 ;
469 [label="gini = 0.4654\nsamples = 38\nvalue = [14, 24]"] ;
437 -> 469 ;
470 [label="gini = 0.0\nsamples = 8\nvalue = [0, 8]"] ;
436 -> 470 ;
471 [label="gini = 0.0\nsamples = 8\nvalue = [0, 8]"] ;
435 -> 471 ;
472 [label="gini = 0.0\nsamples = 9\nvalue = [0, 9]"] ;
434 -> 472 ;
473 [label="gini = 0.0\nsamples = 10\nvalue = [0, 10]"] ;
433 -> 473 ;
474 [label="gini = 0.0\nsamples = 18\nvalue = [0, 18]"] ;
432 -> 474 ;
475 [label="gini = 0.0\nsamples = 19\nvalue = [0, 19]"] ;
431 -> 475 ;
476 [label="gini = 0.0\nsamples = 31\nvalue = [0, 31]"] ;
430 -> 476 ;
477 [label="X[229] <= 0.1173\ngini = 0.0357\nsamples = 55\nvalue = [1, 54]"] ;
429 -> 477 ;
478 [label="gini = 0.0\nsamples = 54\nvalue = [0, 54]"] ;
477 -> 478 ;
479 [label="gini = 0.0\nsamples = 1\nvalue = [1, 0]"] ;
477 -> 479 ;
480 [label="X[160] <= 0.0694\ngini = 0.4924\nsamples = 381\nvalue = [167, 214]"] ;
12 -> 480 ;
481 [label="X[74] <= 0.0256\ngini = 0.4957\nsamples = 302\nvalue = [165, 137]"] ;
480 -> 481 ;
482 [label="X[304] <= 0.0255\ngini = 0.4676\nsamples = 263\nvalue = [165, 98]"] ;
481 -> 482 ;
483 [label="X[8] <= 0.0168\ngini = 0.4076\nsamples = 228\nvalue = [163, 65]"] ;
482 -> 483 ;
484 [label="X[319] <= 0.0393\ngini = 0.3593\nsamples = 213\nvalue = [163, 50]"] ;
483 -> 484 ;
485 [label="X[87] <= 0.0116\ngini = 0.3116\nsamples = 202\nvalue = [163, 39]"] ;
484 -> 485 ;
486 [label="X[361] <= 0.0296\ngini = 0.2156\nsamples = 179\nvalue = [157, 22]"] ;
485 -> 486 ;
487 [label="X[215] <= 0.0559\ngini = 0.1412\nsamples = 170\nvalue = [157, 13]"] ;
486 -> 487 ;
488 [label="X[187] <= 0.0834\ngini = 0.1026\nsamples = 166\nvalue = [157, 9]"] ;
487 -> 488 ;
489 [label="X[32] <= 0.1357\ngini = 0.0598\nsamples = 162\nvalue = [157, 5]"] ;
488 -> 489 ;
490 [label="X[66] <= 0.054\ngini = 0.0248\nsamples = 159\nvalue = [157, 2]"] ;
489 -> 490 ;
491 [label="gini = 0.0\nsamples = 157\nvalue = [157, 0]"] ;
490 -> 491 ;
492 [label="gini = 0.0\nsamples = 2\nvalue = [0, 2]"] ;
490 -> 492 ;
493 [label="gini = 0.0\nsamples = 3\nvalue = [0, 3]"] ;
489 -> 493 ;
494 [label="gini = 0.0\nsamples = 4\nvalue = [0, 4]"] ;
488 -> 494 ;
495 [label="gini = 0.0\nsamples = 4\nvalue = [0, 4]"] ;
487 -> 495 ;
496 [label="gini = 0.0\nsamples = 9\nvalue = [0, 9]"] ;
486 -> 496 ;
497 [label="gini = 0.3856\nsamples = 23\nvalue = [6, 17]"] ;
485 -> 497 ;
498 [label="gini = 0.0\nsamples = 11\nvalue = [0, 11]"] ;
484 -> 498 ;
499 [label="gini = 0.0\nsamples = 15\nvalue = [0, 15]"] ;
483 -> 499 ;
500 [label="gini = 0.1078\nsamples = 35\nvalue = [2, 33]"] ;
482 -> 500 ;
501 [label="gini = 0.0\nsamples = 39\nvalue = [0, 39]"] ;
481 -> 501 ;
502 [label="X[144] <= 0.0601\ngini = 0.0494\nsamples = 79\nvalue = [2, 77]"] ;
480 -> 502 ;
503 [label="gini = 0.0\nsamples = 77\nvalue = [0, 77]"] ;
502 -> 503 ;
504 [label="gini = 0.0\nsamples = 2\nvalue = [2, 0]"] ;
502 -> 504 ;
505 [label="gini = 0.0\nsamples = 51\nvalue = [51, 0]"] ;
11 -> 505 ;
506 [label="X[36] <= 0.1378\ngini = 0.4669\nsamples = 245\nvalue = [154, 91]"] ;
10 -> 506 ;
507 [label="X[152] <= 0.0491\ngini = 0.4918\nsamples = 133\nvalue = [58, 75]"] ;
506 -> 507 ;
508 [label="X[80] <= 0.0228\ngini = 0.3423\nsamples = 73\nvalue = [16, 57]"] ;
507 -> 508 ;
509 [label="X[190] <= 0.0434\ngini = 0.2386\nsamples = 65\nvalue = [9, 56]"] ;
508 -> 509 ;
510 [label="X[151] <= 0.0495\ngini = 0.1505\nsamples = 61\nvalue = [5, 56]"] ;
509 -> 510 ;
511 [label="X[295] <= 0.0823\ngini = 0.0677\nsamples = 57\nvalue = [2, 55]"] ;
510 -> 511 ;
512 [label="gini = 0.0\nsamples = 55\nvalue = [0, 55]"] ;
511 -> 512 ;
513 [label="gini = 0.0\nsamples = 2\nvalue = [2, 0]"] ;
511 -> 513 ;
514 [label="gini = 0.375\nsamples = 4\nvalue = [3, 1]"] ;
510 -> 514 ;
515 [label="gini = 0.0\nsamples = 4\nvalue = [4, 0]"] ;
509 -> 515 ;
516 [label="gini = 0.2188\nsamples = 8\nvalue = [7, 1]"] ;
508 -> 516 ;
517 [label="X[149] <= 0.1671\ngini = 0.42\nsamples = 60\nvalue = [42, 18]"] ;
507 -> 517 ;
518 [label="X[309] <= 0.0348\ngini = 0.3107\nsamples = 52\nvalue = [42, 10]"] ;
517 -> 518 ;
519 [label="X[231] <= 0.0819\ngini = 0.0907\nsamples = 42\nvalue = [40, 2]"] ;
518 -> 519 ;
520 [label="gini = 0.0\nsamples = 40\nvalue = [40, 0]"] ;
519 -> 520 ;
521 [label="gini = 0.0\nsamples = 2\nvalue = [0, 2]"] ;
519 -> 521 ;
522 [label="gini = 0.32\nsamples = 10\nvalue = [2, 8]"] ;
518 -> 522 ;
523 [label="gini = 0.0\nsamples = 8\nvalue = [0, 8]"] ;
517 -> 523 ;
524 [label="X[238] <= 0.1004\ngini = 0.2449\nsamples = 112\nvalue = [96, 16]"] ;
506 -> 524 ;
525 [label="X[160] <= 0.0903\ngini = 0.1845\nsamples = 107\nvalue = [96, 11]"] ;
524 -> 525 ;
526 [label="X[36] <= 0.219\ngini = 0.1267\nsamples = 103\nvalue = [96, 7]"] ;
525 -> 526 ;
527 [label="gini = 0.0\nsamples = 53\nvalue = [53, 0]"] ;
526 -> 527 ;
528 [label="X[36] <= 0.2303\ngini = 0.2408\nsamples = 50\nvalue = [43, 7]"] ;
526 -> 528 ;
529 [label="gini = 0.4628\nsamples = 11\nvalue = [4, 7]"] ;
528 -> 529 ;
530 [label="gini = 0.0\nsamples = 39\nvalue = [39, 0]"] ;
528 -> 530 ;
531 [label="gini = 0.0\nsamples = 4\nvalue = [0, 4]"] ;
525 -> 531 ;
532 [label="gini = 0.0\nsamples = 5\nvalue = [0, 5]"] ;
524 -> 532 ;
533 [label="X[87] <= 0.0529\ngini = 0.4226\nsamples = 211\nvalue = [147, 64]"] ;
9 -> 533 ;
534 [label="X[267] <= 0.0331\ngini = 0.2474\nsamples = 166\nvalue = [142, 24]"] ;
533 -> 534 ;
535 [label="X[8] <= 0.018\ngini = 0.1537\nsamples = 155\nvalue = [142, 13]"] ;
534 -> 535 ;
536 [label="X[190] <= 0.0626\ngini = 0.0895\nsamples = 149\nvalue = [142, 7]"] ;
535 -> 536 ;
537 [label="X[136] <= 0.0717\ngini = 0.0405\nsamples = 145\nvalue = [142, 3]"] ;
536 -> 537 ;
538 [label="X[304] <= 0.0602\ngini = 0.0139\nsamples = 143\nvalue = [142, 1]"] ;
537 -> 538 ;
539 [label="gini = 0.0\nsamples = 142\nvalue = [142, 0]"] ;
538 -> 539 ;
540 [label="gini = 0.0\nsamples = 1\nvalue = [0, 1]"] ;
538 -> 540 ;
541 [label="gini = 0.0\nsamples = 2\nvalue = [0, 2]"] ;
537 -> 541 ;
542 [label="gini = 0.0\nsamples = 4\nvalue = [0, 4]"] ;
536 -> 542 ;
543 [label="gini = 0.0\nsamples = 6\nvalue = [0, 6]"] ;
535 -> 543 ;
544 [label="gini = 0.0\nsamples = 11\nvalue = [0, 11]"] ;
534 -> 544 ;
545 [label="X[360] <= 0.0312\ngini = 0.1975\nsamples = 45\nvalue = [5, 40]"] ;
533 -> 545 ;
546 [label="gini = 0.0\nsamples = 40\nvalue = [0, 40]"] ;
545 -> 546 ;
547 [label="gini = 0.0\nsamples = 5\nvalue = [5, 0]"] ;
545 -> 547 ;
548 [label="gini = 0.0\nsamples = 110\nvalue = [110, 0]"] ;
8 -> 548 ;
549 [label="gini = 0.0\nsamples = 113\nvalue = [113, 0]"] ;
7 -> 549 ;
550 [label="X[64] <= 0.0441\ngini = 0.321\nsamples = 244\nvalue = [195, 49]"] ;
6 -> 550 ;
551 [label="X[5] <= 0.0274\ngini = 0.2476\nsamples = 228\nvalue = [195, 33]"] ;
550 -> 551 ;
552 [label="X[152] <= 0.0788\ngini = 0.1952\nsamples = 219\nvalue = [195, 24]"] ;
551 -> 552 ;
553 [label="X[374] <= 0.1044\ngini = 0.1193\nsamples = 204\nvalue = [191, 13]"] ;
552 -> 553 ;
554 [label="X[345] <= 0.165\ngini = 0.0859\nsamples = 200\nvalue = [191, 9]"] ;
553 -> 554 ;
555 [label="X[260] <= 0.1408\ngini = 0.0591\nsamples = 197\nvalue = [191, 6]"] ;
554 -> 555 ;
556 [label="X[87] <= 0.1006\ngini = 0.0304\nsamples = 194\nvalue = [191, 3]"] ;
555 -> 556 ;
557 [label="X[362] <= 0.0677\ngini = 0.0104\nsamples = 192\nvalue = [191, 1]"] ;
556 -> 557 ;
558 [label="gini = 0.0\nsamples = 191\nvalue = [191, 0]"] ;
557 -> 558 ;
559 [label="gini = 0.0\nsamples = 1\nvalue = [0, 1]"] ;
557 -> 559 ;
560 [label="gini = 0.0\nsamples = 2\nvalue = [0, 2]"] ;
556 -> 560 ;
561 [label="gini = 0.0\nsamples = 3\nvalue = [0, 3]"] ;
555 -> 561 ;
562 [label="gini = 0.0\nsamples = 3\nvalue = [0, 3]"] ;
554 -> 562 ;
563 [label="gini = 0.0\nsamples = 4\nvalue = [0, 4]"] ;
553 -> 563 ;
564 [label="gini = 0.3911\nsamples = 15\nvalue = [4, 11]"] ;
552 -> 564 ;
565 [label="gini = 0.0\nsamples = 9\nvalue = [0, 9]"] ;
551 -> 565 ;
566 [label="gini = 0.0\nsamples = 16\nvalue = [0, 16]"] ;
550 -> 566 ;
567 [label="X[21] <= 0.0518\ngini = 0.1157\nsamples = 227\nvalue = [213, 14]"] ;
5 -> 567 ;
568 [label="X[66] <= 0.0586\ngini = 0.0279\nsamples = 212\nvalue = [209, 3]"] ;
567 -> 568 ;
569 [label="X[8] <= 0.0247\ngini = 0.0095\nsamples = 210\nvalue = [209, 1]"] ;
568 -> 569 ;
570 [label="gini = 0.0\nsamples = 209\nvalue = [209, 0]"] ;
569 -> 570 ;
571 [label="gini = 0.0\nsamples = 1\nvalue = [0, 1]"] ;
569 -> 571 ;
572 [label="gini = 0.0\nsamples = 2\nvalue = [0, 2]"] ;
568 -> 572 ;
573 [label="gini = 0.3911\nsamples = 15\nvalue = [4, 11]"] ;
567 -> 573 ;
574 [label="X[87] <= 0.0131\ngini = 0.3083\nsamples = 520\nvalue = [421, 99]"] ;
4 -> 574 ;
575 [label="X[64] <= 0.0337\ngini = 0.1402\nsamples = 435\nvalue = [402, 33]"] ;
574 -> 575 ;
576 [label="X[8] <= 0.0161\ngini = 0.0944\nsamples = 423\nvalue = [402, 21]"] ;
575 -> 576 ;
577 [label="X[270] <= 0.0616\ngini = 0.0563\nsamples = 414\nvalue = [402, 12]"] ;
576 -> 577 ;
578 [label="X[321] <= 0.0199\ngini = 0.029\nsamples = 408\nvalue = [402, 6]"] ;
577 -> 578 ;
579 [label="X[21] <= 0.1722\ngini = 0.0147\nsamples = 405\nvalue = [402, 3]"] ;
578 -> 579 ;
580 [label="gini = 0.0\nsamples = 402\nvalue = [402, 0]"] ;
579 -> 580 ;
581 [label="gini = 0.0\nsamples = 3\nvalue = [0, 3]"] ;
579 -> 581 ;
582 [label="gini = 0.0\nsamples = 3\nvalue = [0, 3]"] ;
578 -> 582 ;
583 [label="gini = 0.0\nsamples = 6\nvalue = [0, 6]"] ;
577 -> 583 ;
584 [label="gini = 0.0\nsamples = 9\nvalue = [0, 9]"] ;
576 -> 584 ;
585 [label="gini = 0.0\nsamples = 12\nvalue = [0, 12]"] ;
575 -> 585 ;
586 [label="X[358] <= 0.0182\ngini = 0.3471\nsamples = 85\nvalue = [19, 66]"] ;
574 -> 586 ;
587 [label="X[367] <= 0.0512\ngini = 0.18\nsamples = 70\nvalue = [7, 63]"] ;
586 -> 587 ;
588 [label="X[275] <= 0.0379\ngini = 0.0596\nsamples = 65\nvalue = [2, 63]"] ;
587 -> 588 ;
589 [label="gini = 0.0\nsamples = 63\nvalue = [0, 63]"] ;
588 -> 589 ;
590 [label="gini = 0.0\nsamples = 2\nvalue = [2, 0]"] ;
588 -> 590 ;
591 [label="gini = 0.0\nsamples = 5\nvalue = [5, 0]"] ;
587 -> 591 ;
592 [label="gini = 0.32\nsamples = 15\nvalue = [12, 3]"] ;
586 -> 592 ;
593 [label="X[160] <= 0.0391\ngini = 0.3249\nsamples = 867\nvalue = [690, 177]"] ;
3 -> 593 ;
594 [label="X[304] <= 0.0451\ngini = 0.2077\nsamples = 756\nvalue = [667, 89]"] ;
593 -> 594 ;
595 [label="X[64] <= 0.0323\ngini = 0.132\nsamples = 704\nvalue = [654, 50]"] ;
594 -> 595 ;
596 [label="X[8] <= 0.0175\ngini = 0.0989\nsamples = 690\nvalue = [654, 36]"] ;
595 -> 596 ;
597 [label="X[108] <= 0.0497\ngini = 0.063\nsamples = 676\nvalue = [654, 22]"] ;
596 -> 597 ;
598 [label="X[177] <= 0.0355\ngini = 0.0466\nsamples = 670\nvalue = [654, 16]"] ;
597 -> 598 ;
599 [label="X[182] <= 0.0914\ngini = 0.0297\nsamples = 663\nvalue = [653, 10]"] ;
598 -> 599 ;
600 [label="X[297] <= 0.0738\ngini = 0.018\nsamples = 659\nvalue = [653, 6]"] ;
599 -> 600 ;
601 [label="X[266] <= 0.0276\ngini = 0.0091\nsamples = 656\nvalue = [653, 3]"] ;
600 -> 601 ;
602 [label="X[238] <= 0.0636\ngini = 0.0031\nsamples = 654\nvalue = [653, 1]"] ;
601 -> 602 ;
603 [label="gini = 0.0\nsamples = 631\nvalue = [631, 0]"] ;
602 -> 603 ;
604 [label="gini = 0.0832\nsamples = 23\nvalue = [22, 1]"] ;
602 -> 604 ;
605 [label="gini = 0.0\nsamples = 2\nvalue = [0, 2]"] ;
601 -> 605 ;
606 [label="gini = 0.0\nsamples = 3\nvalue = [0, 3]"] ;
600 -> 606 ;
607 [label="gini = 0.0\nsamples = 4\nvalue = [0, 4]"] ;
599 -> 607 ;
608 [label="gini = 0.2449\nsamples = 7\nvalue = [1, 6]"] ;
598 -> 608 ;
609 [label="gini = 0.0\nsamples = 6\nvalue = [0, 6]"] ;
597 -> 609 ;
610 [label="gini = 0.0\nsamples = 14\nvalue = [0, 14]"] ;
596 -> 610 ;
611 [label="gini = 0.0\nsamples = 14\nvalue = [0, 14]"] ;
595 -> 611 ;
612 [label="X[367] <= 0.0276\ngini = 0.375\nsamples = 52\nvalue = [13, 39]"] ;
594 -> 612 ;
613 [label="X[73] <= 0.0385\ngini = 0.0928\nsamples = 41\nvalue = [2, 39]"] ;
612 -> 613 ;
614 [label="gini = 0.0\nsamples = 39\nvalue = [0, 39]"] ;
613 -> 614 ;
615 [label="gini = 0.0\nsamples = 2\nvalue = [2, 0]"] ;
613 -> 615 ;
616 [label="gini = 0.0\nsamples = 11\nvalue = [11, 0]"] ;
612 -> 616 ;
617 [label="X[231] <= 0.0419\ngini = 0.3285\nsamples = 111\nvalue = [23, 88]"] ;
593 -> 617 ;
618 [label="X[156] <= 0.0519\ngini = 0.2243\nsamples = 101\nvalue = [13, 88]"] ;
617 -> 618 ;
619 [label="X[60] <= 0.0203\ngini = 0.1195\nsamples = 94\nvalue = [6, 88]"] ;
618 -> 619 ;
620 [label="X[29] <= 0.0782\ngini = 0.0222\nsamples = 89\nvalue = [1, 88]"] ;
619 -> 620 ;
621 [label="gini = 0.0\nsamples = 88\nvalue = [0, 88]"] ;
620 -> 621 ;
622 [label="gini = 0.0\nsamples = 1\nvalue = [1, 0]"] ;
620 -> 622 ;
623 [label="gini = 0.0\nsamples = 5\nvalue = [5, 0]"] ;
619 -> 623 ;
624 [label="gini = 0.0\nsamples = 7\nvalue = [7, 0]"] ;
618 -> 624 ;
625 [label="gini = 0.0\nsamples = 10\nvalue = [10, 0]"] ;
617 -> 625 ;
626 [label="X[102] <= 0.2047\ngini = 0.0128\nsamples = 622\nvalue = [618, 4]"] ;
2 -> 626 ;
627 [label="X[302] <= 0.0878\ngini = 0.0032\nsamples = 619\nvalue = [618, 1]"] ;
626 -> 627 ;
628 [label="gini = 0.0\nsamples = 616\nvalue = [616, 0]"] ;
627 -> 628 ;
629 [label="gini = 0.4444\nsamples = 3\nvalue = [2, 1]"] ;
627 -> 629 ;
630 [label="gini = 0.0\nsamples = 3\nvalue = [0, 3]"] ;
626 -> 630 ;
631 [label="X[319] <= 0.0327\ngini = 0.0093\nsamples = 1075\nvalue = [1070, 5]"] ;
1 -> 631 ;
632 [label="gini = 0.0\nsamples = 1070\nvalue = [1070, 0]"] ;
631 -> 632 ;
633 [label="gini = 0.0\nsamples = 5\nvalue = [0, 5]"] ;
631 -> 633 ;
634 [label="X[8] <= 0.0051\ngini = 0.1084\nsamples = 3148\nvalue = [2967, 181]"] ;
0 -> 634 [labeldistance=2.5, labelangle=-45, headlabel="False"] ;
635 [label="X[165] <= 0.018\ngini = 0.0724\nsamples = 3083\nvalue = [2967, 116]"] ;
634 -> 635 ;
636 [label="X[362] <= 0.0055\ngini = 0.056\nsamples = 3055\nvalue = [2967, 88]"] ;
635 -> 636 ;
637 [label="X[206] <= 0.0281\ngini = 0.0426\nsamples = 3030\nvalue = [2964, 66]"] ;
636 -> 637 ;
638 [label="X[361] <= 0.0473\ngini = 0.0358\nsamples = 3019\nvalue = [2964, 55]"] ;
637 -> 638 ;
639 [label="X[368] <= 0.0398\ngini = 0.032\nsamples = 3013\nvalue = [2964, 49]"] ;
638 -> 639 ;
640 [label="X[353] <= 0.087\ngini = 0.0288\nsamples = 3008\nvalue = [2964, 44]"] ;
639 -> 640 ;
641 [label="X[47] <= 0.0793\ngini = 0.0225\nsamples = 2984\nvalue = [2950, 34]"] ;
640 -> 641 ;
642 [label="X[301] <= 0.1413\ngini = 0.0199\nsamples = 2980\nvalue = [2950, 30]"] ;
641 -> 642 ;
643 [label="X[49] <= 0.0943\ngini = 0.0167\nsamples = 2973\nvalue = [2948, 25]"] ;
642 -> 643 ;
644 [label="X[79] <= 0.1812\ngini = 0.0147\nsamples = 2970\nvalue = [2948, 22]"] ;
643 -> 644 ;
645 [label="X[66] <= 0.0309\ngini = 0.0134\nsamples = 2968\nvalue = [2948, 20]"] ;
644 -> 645 ;
646 [label="X[256] <= 0.1115\ngini = 0.0121\nsamples = 2966\nvalue = [2948, 18]"] ;
645 -> 646 ;
647 [label="X[260] <= 0.0533\ngini = 0.0114\nsamples = 2965\nvalue = [2948, 17]"] ;
646 -> 647 ;
648 [label="X[230] <= 0.1609\ngini = 0.0081\nsamples = 2936\nvalue = [2924, 12]"] ;
647 -> 648 ;
649 [label="X[160] <= 0.0908\ngini = 0.0068\nsamples = 2925\nvalue = [2915, 10]"] ;
648 -> 649 ;
650 [label="X[87] <= 0.113\ngini = 0.0055\nsamples = 2908\nvalue = [2900, 8]"] ;
649 -> 650 ;
651 [label="X[186] <= 0.0953\ngini = 0.0041\nsamples = 2894\nvalue = [2888, 6]"] ;
650 -> 651 ;
652 [label="X[256] <= 0.053\ngini = 0.0021\nsamples = 2829\nvalue = [2826, 3]"] ;
651 -> 652 ;
653 [label="X[257] <= 0.1287\ngini = 0.0014\nsamples = 2820\nvalue = [2818, 2]"] ;
652 -> 653 ;
654 [label="gini = 0.0\nsamples = 2782\nvalue = [2782, 0]"] ;
653 -> 654 ;
655 [label="gini = 0.0997\nsamples = 38\nvalue = [36, 2]"] ;
653 -> 655 ;
656 [label="gini = 0.1975\nsamples = 9\nvalue = [8, 1]"] ;
652 -> 656 ;
657 [label="X[186] <= 0.0966\ngini = 0.088\nsamples = 65\nvalue = [62, 3]"] ;
651 -> 657 ;
658 [label="gini = 0.0\nsamples = 3\nvalue = [0, 3]"] ;
657 -> 658 ;
659 [label="gini = 0.0\nsamples = 62\nvalue = [62, 0]"] ;
657 -> 659 ;
660 [label="gini = 0.2449\nsamples = 14\nvalue = [12, 2]"] ;
650 -> 660 ;
661 [label="gini = 0.2076\nsamples = 17\nvalue = [15, 2]"] ;
649 -> 661 ;
662 [label="gini = 0.2975\nsamples = 11\nvalue = [9, 2]"] ;
648 -> 662 ;
663 [label="gini = 0.2854\nsamples = 29\nvalue = [24, 5]"] ;
647 -> 663 ;
664 [label="gini = 0.0\nsamples = 1\nvalue = [0, 1]"] ;
646 -> 664 ;
665 [label="gini = 0.0\nsamples = 2\nvalue = [0, 2]"] ;
645 -> 665 ;
666 [label="gini = 0.0\nsamples = 2\nvalue = [0, 2]"] ;
644 -> 666 ;
667 [label="gini = 0.0\nsamples = 3\nvalue = [0, 3]"] ;
643 -> 667 ;
668 [label="gini = 0.4082\nsamples = 7\nvalue = [2, 5]"] ;
642 -> 668 ;
669 [label="gini = 0.0\nsamples = 4\nvalue = [0, 4]"] ;
641 -> 669 ;
670 [label="gini = 0.4861\nsamples = 24\nvalue = [14, 10]"] ;
640 -> 670 ;
671 [label="gini = 0.0\nsamples = 5\nvalue = [0, 5]"] ;
639 -> 671 ;
672 [label="gini = 0.0\nsamples = 6\nvalue = [0, 6]"] ;
638 -> 672 ;
673 [label="gini = 0.0\nsamples = 11\nvalue = [0, 11]"] ;
637 -> 673 ;
674 [label="gini = 0.2112\nsamples = 25\nvalue = [3, 22]"] ;
636 -> 674 ;
675 [label="gini = 0.0\nsamples = 28\nvalue = [0, 28]"] ;
635 -> 675 ;
676 [label="gini = 0.0\nsamples = 65\nvalue = [0, 65]"] ;
634 -> 676 ;
}